-72635.3395264446,-119516.208412121,-115705.580020303,-71826.0517937868,-98496.8073172831,-76763.63018295,-81001.5615967881,-58890.6758111376,-85378.6525931759,-76706.7316701954,-140273.280025591,-66356.5382731588,-110818.728287894,-126451.583248926,-115601.55947946,-78563.8846702362,-58158.6246196237,-74810.6553319468,-119277.358516468,-114777.947128999,-73061.1912742663,-118327.880372622,-112483.277070977,-81752.0409503112,-104033.342553473
242.516333815916,660.24426381153,4045.06258266731,758.97783610556,-7936.8325386951,-1573.24897767554,-1336.26697575735,-5942.47722321361,740.395612180869,-3460.96496902188,9411.49606760184,-1300.75591951913,12423.1667293315,-8326.00527561146,-5062.4021394946,-7971.82973650767,1923.27644054884,3723.74925442819,12935.0407444651,346.323708818982,-1723.42798331172,-7860.24324317816,-5717.21359557601,-3426.62719662441,5851.86705567945
2890.81227990465,-3232.11168613965,-3182.42104006902,5128.12161387635,-856.048215519439,5201.22087307084,6250.68871626235,708.197326129145,-3411.07628125621,5630.97353256322,-3857.86409280133,983.492604177104,2116.49147445798,-835.679778971185,-3751.59826755071,1892.27546224006,2629.24473009218,983.040261793412,-581.880533465263,-1758.67428942304,2699.99316827482,-4995.57235849172,-3007.20838753947,3999.44558128548,-770.461737323972
-655.163203820372,-797.224294537311,-295.407281011179,-407.11170302908,610.480452360959,144.087753205221,285.654124586376,1422.55851609841,-287.326372959958,1187.87044926947,1185.99451783287,-508.83694438682,2532.72029796626,15.5173917115417,-990.538851150353,2440.79813183211,-573.560432333445,-612.614308662472,2832.46598943641,-1156.36828854659,-246.690378999953,-635.492651896862,-490.254846857886,470.678125489361,484.945131500267
-1217.67930688579,1140.6084379551,303.647145040755,1176.63603725544,-443.148955599784,-489.061588990346,565.416231910657,-435.922893348319,-126.272769244487,-293.429925380474,-1020.83182762582,-781.887082358896,1009.08855229269,722.029242237231,-632.087743077104,-655.837244833535,-694.24130977264,-1156.99895402571,-680.99717776759,-1480.31118941338,-46.4441290049506,1433.23698624884,-3.86499964386314,1432.79828031469,209.907528385569
-15.5606095997727,-132.611924640139,-648.624904654919,129.474069924813,875.467708280596,-287.56928225636,-34.914268940416,202.553510383814,258.262546065353,-830.089903451069,-981.784065624731,31.5657371655286,384.614856218187,108.280121900801,-43.658879261376,225.360070424541,221.09592242067,-197.373673315797,-774.048232205069,-169.286661882678,50.3296396171669,99.6567367229256,1136.79850664024,-123.952045312999,600.39979781969
174.693108700039,-131.032968409413,-185.545571669427,212.987140727379,-0.553342782667357,285.768336883644,345.283886233749,-265.38342283124,33.6455314122443,124.26850851167,-33.9746240374529,143.502459865619,-204.649767630502,-14.8606742427594,4.14117392095318,-456.216865589184,29.7725600239033,-138.919880799583,-16.8383717066476,45.5332940583569,204.037472834128,-231.437729061967,122.57584372038,209.309892076472,-28.5222708205267
40.4966307092245,208.943874869767,262.819193399844,-98.5550091652668,-178.611465178035,19.6607686322761,-57.0272279551715,91.9301244479126,71.9729110461706,92.6371688740677,20.9588880847714,32.3745664732965,-263.176115501935,-226.447423214295,-87.3575343795692,287.146091507223,-7.04463075174829,17.0661578305426,-470.286948004133,104.448576440476,0.248966314218933,-336.051525545143,-214.236919807085,-92.8664960770551,54.5222064593763
53.461563103035,51.4617646354135,-30.2301482953123,-36.9966079280458,60.8953179922145,80.7342659137226,-51.082300651545,42.3969301241483,-17.8430658444507,37.1500345777263,-293.007536575587,35.3349288992574,322.567663972834,-74.3295037701911,56.2888259668148,70.8601707542233,2.61509482873623,-130.909194849319,-109.366382729825,-90.8763834624095,6.65045011067917,4.66945974279611,53.2868462958729,-221.836615615498,3.54908858752066
1.4973261433837,-6.4855459271264,-4.42010229533093,66.1741420919138,38.4486446385556,-2.75016660774946,23.9650217609392,25.5394088357747,-4.22355278019808,-26.070505932871,-27.9362023237613,-23.7580295485412,-98.4568324590591,-41.3531915446722,4.2625271503905,61.0841850991309,13.0519555002433,8.95344438133026,-12.7924283126504,-13.8242216287023,-24.0436044789121,39.9583065625663,45.4888129255048,-19.5247466329766,-96.3438106400536
-54.5409815639715,-7.69714493482472,21.0544074016759,34.1838554796304,50.2441180781448,32.45659443446,60.9739796612391,-22.1698313051189,26.2906690516875,124.930702320109,13.0513042516989,-36.0306287769942,-16.3919713939865,-14.5332059967838,1.17607630494064,-58.8071116259214,-37.9697105241774,-28.3768479392462,-30.5439948868057,-45.4282438111064,-17.0649211819719,-5.14601079030814,71.2001787478766,26.648927697895,-8.23754082493586
-35.4320049373796,-14.5677173616976,-6.27222843111393,19.4218349363401,27.5928298375482,-24.5580086912508,-5.12101579993275,12.7516119876082,6.61853557695428,-5.26278644728143,-6.61037878023538,-1.49732978192594,23.3152022256147,-13.799673730392,21.5772632821576,24.7164506082174,-24.6239500696656,-23.1509994300929,33.8449365019494,8.27698935772557,-0.100277485614671,-77.4123161791118,37.5302701356106,-3.70063764556225,2.77934014637633
16.8329590021174,10.4595088015257,20.9465313877323,-16.4513008628668,31.4353579571369,2.93094874397133,-12.1161661129647,2.06802707377346,-4.16918350936911,-21.4758614077675,23.2018767633355,11.5050884935346,-24.0524837959901,10.4441915706163,-8.10211683335815,-5.15997093207551,1.52813598175026,4.84110697652321,15.1694131194852,0.533068019879565,6.45314004895878,-3.11926901190351,23.2821391928511,-0.870967559996107,-16.6963519322087
0.495660852418385,8.1760035842598,-4.4197958592191,-19.7475706919611,-4.21957663748439,-1.81626005493142,-10.8438225293677,-1.56123943725262,2.21577396619309,18.8299525652322,-15.5127262423956,-0.0172142432625755,0.183011730639024,-2.77360316469753,-0.0369867727743305,4.88664239406187,1.34054037609384,1.3936509344683,17.4889877701698,-0.424017101279107,-3.85519983245194,15.1998644302956,5.72051946808033,-7.61507290573311,0.459115897478377
-7.23189772101441,3.92052721296496,2.43733666161979,2.65249752432077,0.173444542841615,-0.181403972807532,2.34815036474768,5.67689073900869,-0.310920218094222,-10.6621516162839,4.97846154302093,0.0831984913866126,-17.5487390396269,1.69535106712491,-0.140185141137395,9.04213851350133,0.50484889290179,-12.0191285588696,12.7936516157332,-6.49432258708525,3.45376424813863,2.55890421533064,-6.59577887721517,-8.53065334658456,-4.31957712860845
3.64465284080819,-2.34000584838174,-3.93885451980824,5.63324892862086,-5.6017408988443,3.35590174996487,1.53773142554813,-1.68261325338083,-1.48131461126472,-3.59997573739427,11.5419376330468,0.474564595304177,5.03814259999758,-2.64416159874933,1.92079516217637,6.7347291841262,-0.30306054950443,-1.50442004384053,13.9548444700541,-2.21415895909756,1.84672912734885,8.77955316842696,-0.807993266825617,-3.53670412549372,1.32221123482555
1.54850649340955,-1.58916680291586,-2.29080396224291,-3.02704349840623,-3.09482149029568,0.995639177087074,-2.40067199504562,-0.0594456402830162,1.57396102281896,0.308828297318636,-4.13572231597319,2.28340234999122,3.90248393878468,1.37090124883425,1.39248524378416,1.16169896409386,0.851714835106452,-4.56368262336734,-3.93537104304839,0.659212844323063,0.235481888119327,-0.11815394224876,-0.286227398671824,-2.1009558843463,1.53325365838411
-0.808315874417228,-0.670957550539232,1.88649736720239,-0.279952922748067,1.78899994452012,-0.455896211915082,1.40708944892216,0.0213818869159765,-0.921865335762531,-2.86825082806974,0.182845415588695,-0.692167980529688,-1.30771595029305,-0.639260465683356,-0.920344455091903,1.68492718999433,0.599582089216126,1.17348437849551,-4.17467928793085,-3.05333736439902,1.00746611898046,0.788769698911203,-0.529598005839308,0.0171753027406028,0.224263419675158
0.656150149270305,0.348404972288252,-2.00644776130995,1.97323547480457,-1.13164765800742,-1.60913953709508,0.229655070441961,0.904407937405575,-0.0344786357900334,-1.45148948959693,-1.87948432969711,0.912023315532109,0.0926877397671776,-0.251509872152257,1.08807727327423,2.01435966270551,0.410928491773396,1.26878587254781,1.05955683350833,2.15976472714587,-0.311639822883071,-1.90937147472434,0.0587146205687696,2.87510141779116,-1.49593340412357
-0.189681150026158,-0.972777695945331,-0.145606770690295,0.306743314980354,0.832439844001048,-0.778189564638884,0.997803419717892,-0.733478549458264,0.12722979724699,-1.19775097466974,-0.187560287473565,0.0947710548255311,3.06632184371232,0.167212931594021,1.80081860087749,-1.62856127761613,0.0230145066253136,0.39501196731868,-1.24415956687082,1.36105876363954,0.152153531043462,-0.668632125275384,0.0666685504452543,0.681017057643811,-0.112185126249808
0.575679106521515,0.259141746716772,-0.31799684315909,0.403146812669364,-0.512335403978123,-0.297783342394453,-0.330927563004179,0.394564247828104,-0.231589481465407,-0.48264900152761,-0.9840076217765,0.182641426886283,0.80985281888903,0.0447571673715706,-0.655322285722279,0.614289569323869,0.237298663600979,-0.327230519205449,-1.83378542565222,0.329031888255703,-0.338572123471453,1.21751441993555,-1.67664629406242,0.299127951505437,-0.436050578136714
-0.261737735607623,-0.388381932465961,-0.288955517464044,-0.0474389150370645,0.679133077432073,0.38012742807996,0.254558216141221,0.196423976827327,0.270342985103313,-0.228460579609809,0.0928367374340344,0.029433592609304,0.500594899615554,0.485518276471246,0.292180708166165,0.659374348489496,-0.401820736999408,0.233266192939584,-0.975726737039597,0.178497555902021,0.272419103809493,0.729566366028012,-0.0920321464857511,-0.333029205812804,0.283401118489728
0.229926249381333,0.227102199591954,0.393000211958626,0.0106562159233893,-0.343651647020894,0.138959973087668,0.0838567363235093,-0.165950168181023,-0.14734206750238,-0.137639795554374,-0.386345106907799,0.103457977772865,1.39642971728106,-0.151500603550943,-0.301682985312121,0.0255029761850057,0.0325741335528311,0.232429804470631,-0.0172446412959172,0.280685968522341,-0.0415491156667077,-0.0109792704218543,-0.177133986661605,0.527697579269094,-0.138262686589699
0.306188366215927,0.121323156812661,0.581702955911415,0.083405036197235,-0.285942930823271,-0.0705516953126865,0.104366218705512,-0.317077991268792,-0.0423962305359326,-0.147491008496149,-0.202283409066728,0.13246843560095,-0.33929280248142,0.2399556325326,0.271122345712682,-0.189202702193842,-0.0292351929417278,-0.212191105252114,0.207666127246502,0.134908171796042,-0.0252831536007569,0.0424671781999795,-0.09756608921786,0.19006636819785,0.215899086692129
0.000795833935492902,-0.00118800808057649,-0.00159456828677593,-0.000743910350518995,0.00158917749286929,0.00105874772510751,0.000910188017199694,-7.02068811548389e-05,-0.00170105254543028,0.000422712193616513,-0.000281582037147204,-0.000341093945134679,-0.000715419756072113,0.000997935936785332,0.000128000180448365,0.00172832504544515,-0.00033701993984551,-0.000882886780954283,-0.000971904240232445,0.000781306010168641,3.84396904582643e-05,-0.0013048155594526,0.00103705905096538,-0.000536908355671521,-0.000224180735156812
